digraph Tree {
node [shape=box] ;
0 [label="X[13] <= 0.5\ngini = 0.272\nsamples = 1029\nvalue = [862, 167]"] ;
1 [label="X[28] <= 2.5\ngini = 0.192\nsamples = 736\nvalue = [657, 79]"] ;
0 -> 1 [labeldistance=2.5, labelangle=45, headlabel="True"] ;
2 [label="X[22] <= 246.0\ngini = 0.444\nsamples = 63\nvalue = [42, 21]"] ;
1 -> 2 ;
3 [label="gini = 0.0\nsamples = 4\nvalue = [0, 4]"] ;
2 -> 3 ;
4 [label="X[23] <= 8.5\ngini = 0.41\nsamples = 59\nvalue = [42, 17]"] ;
2 -> 4 ;
5 [label="X[27] <= 20.0\ngini = 0.231\nsamples = 30\nvalue = [26, 4]"] ;
4 -> 5 ;
6 [label="X[26] <= 7436.5\ngini = 0.137\nsamples = 27\nvalue = [25, 2]"] ;
5 -> 6 ;
7 [label="X[21] <= 29.0\ngini = 0.444\nsamples = 6\nvalue = [4, 2]"] ;
6 -> 7 ;
8 [label="gini = 0.0\nsamples = 2\nvalue = [0, 2]"] ;
7 -> 8 ;
9 [label="gini = 0.0\nsamples = 4\nvalue = [4, 0]"] ;
7 -> 9 ;
10 [label="gini = 0.0\nsamples = 21\nvalue = [21, 0]"] ;
6 -> 10 ;
11 [label="X[32] <= 0.5\ngini = 0.444\nsamples = 3\nvalue = [1, 2]"] ;
5 -> 11 ;
12 [label="gini = 0.0\nsamples = 2\nvalue = [0, 2]"] ;
11 -> 12 ;
13 [label="gini = 0.0\nsamples = 1\nvalue = [1, 0]"] ;
11 -> 13 ;
14 [label="X[19] <= 2.5\ngini = 0.495\nsamples = 29\nvalue = [16, 13]"] ;
4 -> 14 ;
15 [label="X[1] <= 0.5\ngini = 0.423\nsamples = 23\nvalue = [16, 7]"] ;
14 -> 15 ;
16 [label="gini = 0.0\nsamples = 3\nvalue = [0, 3]"] ;
15 -> 16 ;
17 [label="X[19] <= 1.5\ngini = 0.32\nsamples = 20\nvalue = [16, 4]"] ;
15 -> 17 ;
18 [label="X[3] <= 2.0\ngini = 0.444\nsamples = 3\nvalue = [1, 2]"] ;
17 -> 18 ;
19 [label="gini = 0.0\nsamples = 2\nvalue = [0, 2]"] ;
18 -> 19 ;
20 [label="gini = 0.0\nsamples = 1\nvalue = [1, 0]"] ;
18 -> 20 ;
21 [label="X[20] <= 1174.0\ngini = 0.208\nsamples = 17\nvalue = [15, 2]"] ;
17 -> 21 ;
22 [label="gini = 0.0\nsamples = 15\nvalue = [15, 0]"] ;
21 -> 22 ;
23 [label="gini = 0.0\nsamples = 2\nvalue = [0, 2]"] ;
21 -> 23 ;
24 [label="gini = 0.0\nsamples = 6\nvalue = [0, 6]"] ;
14 -> 24 ;
25 [label="X[11] <= 4.5\ngini = 0.158\nsamples = 673\nvalue = [615, 58]"] ;
1 -> 25 ;
26 [label="X[31] <= 14.5\ngini = 0.117\nsamples = 512\nvalue = [480, 32]"] ;
25 -> 26 ;
27 [label="X[29] <= 31.5\ngini = 0.108\nsamples = 506\nvalue = [477, 29]"] ;
26 -> 27 ;
28 [label="X[22] <= 110.0\ngini = 0.102\nsamples = 501\nvalue = [474, 27]"] ;
27 -> 28 ;
29 [label="X[20] <= 522.0\ngini = 0.5\nsamples = 2\nvalue = [1, 1]"] ;
28 -> 29 ;
30 [label="gini = 0.0\nsamples = 1\nvalue = [1, 0]"] ;
29 -> 30 ;
31 [label="gini = 0.0\nsamples = 1\nvalue = [0, 1]"] ;
29 -> 31 ;
32 [label="X[15] <= 1.5\ngini = 0.099\nsamples = 499\nvalue = [473, 26]"] ;
28 -> 32 ;
33 [label="X[11] <= 3.5\ngini = 0.141\nsamples = 262\nvalue = [242, 20]"] ;
32 -> 33 ;
34 [label="X[21] <= 32.5\ngini = 0.114\nsamples = 230\nvalue = [216, 14]"] ;
33 -> 34 ;
35 [label="X[29] <= 1.5\ngini = 0.209\nsamples = 93\nvalue = [82, 11]"] ;
34 -> 35 ;
36 [label="X[8] <= 7.5\ngini = 0.375\nsamples = 4\nvalue = [1, 3]"] ;
35 -> 36 ;
37 [label="gini = 0.0\nsamples = 3\nvalue = [0, 3]"] ;
36 -> 37 ;
38 [label="gini = 0.0\nsamples = 1\nvalue = [1, 0]"] ;
36 -> 38 ;
39 [label="X[7] <= 1.5\ngini = 0.164\nsamples = 89\nvalue = [81, 8]"] ;
35 -> 39 ;
40 [label="X[9] <= 1.5\ngini = 0.104\nsamples = 73\nvalue = [69, 4]"] ;
39 -> 40 ;
41 [label="X[19] <= 0.5\ngini = 0.198\nsamples = 36\nvalue = [32, 4]"] ;
40 -> 41 ;
42 [label="gini = 0.0\nsamples = 1\nvalue = [0, 1]"] ;
41 -> 42 ;
43 [label="X[17] <= 0.5\ngini = 0.157\nsamples = 35\nvalue = [32, 3]"] ;
41 -> 43 ;
44 [label="X[9] <= 0.5\ngini = 0.408\nsamples = 7\nvalue = [5, 2]"] ;
43 -> 44 ;
45 [label="gini = 0.0\nsamples = 5\nvalue = [5, 0]"] ;
44 -> 45 ;
46 [label="gini = 0.0\nsamples = 2\nvalue = [0, 2]"] ;
44 -> 46 ;
47 [label="X[32] <= 1.5\ngini = 0.069\nsamples = 28\nvalue = [27, 1]"] ;
43 -> 47 ;
48 [label="X[23] <= 7.5\ngini = 0.5\nsamples = 2\nvalue = [1, 1]"] ;
47 -> 48 ;
49 [label="gini = 0.0\nsamples = 1\nvalue = [0, 1]"] ;
48 -> 49 ;
50 [label="gini = 0.0\nsamples = 1\nvalue = [1, 0]"] ;
48 -> 50 ;
51 [label="gini = 0.0\nsamples = 26\nvalue = [26, 0]"] ;
47 -> 51 ;
52 [label="gini = 0.0\nsamples = 37\nvalue = [37, 0]"] ;
40 -> 52 ;
53 [label="X[23] <= 22.5\ngini = 0.375\nsamples = 16\nvalue = [12, 4]"] ;
39 -> 53 ;
54 [label="X[26] <= 24922.0\ngini = 0.245\nsamples = 14\nvalue = [12, 2]"] ;
53 -> 54 ;
55 [label="X[24] <= 97.0\ngini = 0.142\nsamples = 13\nvalue = [12, 1]"] ;
54 -> 55 ;
56 [label="gini = 0.0\nsamples = 12\nvalue = [12, 0]"] ;
55 -> 56 ;
57 [label="gini = 0.0\nsamples = 1\nvalue = [0, 1]"] ;
55 -> 57 ;
58 [label="gini = 0.0\nsamples = 1\nvalue = [0, 1]"] ;
54 -> 58 ;
59 [label="gini = 0.0\nsamples = 2\nvalue = [0, 2]"] ;
53 -> 59 ;
60 [label="X[31] <= 6.5\ngini = 0.043\nsamples = 137\nvalue = [134, 3]"] ;
34 -> 60 ;
61 [label="X[20] <= 32.5\ngini = 0.017\nsamples = 119\nvalue = [118, 1]"] ;
60 -> 61 ;
62 [label="X[9] <= 1.5\ngini = 0.32\nsamples = 5\nvalue = [4, 1]"] ;
61 -> 62 ;
63 [label="gini = 0.0\nsamples = 1\nvalue = [0, 1]"] ;
62 -> 63 ;
64 [label="gini = 0.0\nsamples = 4\nvalue = [4, 0]"] ;
62 -> 64 ;
65 [label="gini = 0.0\nsamples = 114\nvalue = [114, 0]"] ;
61 -> 65 ;
66 [label="X[21] <= 47.0\ngini = 0.198\nsamples = 18\nvalue = [16, 2]"] ;
60 -> 66 ;
67 [label="gini = 0.0\nsamples = 15\nvalue = [15, 0]"] ;
66 -> 67 ;
68 [label="X[24] <= 86.5\ngini = 0.444\nsamples = 3\nvalue = [1, 2]"] ;
66 -> 68 ;
69 [label="gini = 0.0\nsamples = 2\nvalue = [0, 2]"] ;
68 -> 69 ;
70 [label="gini = 0.0\nsamples = 1\nvalue = [1, 0]"] ;
68 -> 70 ;
71 [label="X[21] <= 54.5\ngini = 0.305\nsamples = 32\nvalue = [26, 6]"] ;
33 -> 71 ;
72 [label="X[26] <= 7673.0\ngini = 0.231\nsamples = 30\nvalue = [26, 4]"] ;
71 -> 72 ;
73 [label="X[21] <= 41.5\ngini = 0.5\nsamples = 4\nvalue = [2, 2]"] ;
72 -> 73 ;
74 [label="gini = 0.0\nsamples = 2\nvalue = [0, 2]"] ;
73 -> 74 ;
75 [label="gini = 0.0\nsamples = 2\nvalue = [2, 0]"] ;
73 -> 75 ;
76 [label="X[21] <= 43.5\ngini = 0.142\nsamples = 26\nvalue = [24, 2]"] ;
72 -> 76 ;
77 [label="gini = 0.0\nsamples = 20\nvalue = [20, 0]"] ;
76 -> 77 ;
78 [label="X[19] <= 1.5\ngini = 0.444\nsamples = 6\nvalue = [4, 2]"] ;
76 -> 78 ;
79 [label="gini = 0.0\nsamples = 2\nvalue = [0, 2]"] ;
78 -> 79 ;
80 [label="gini = 0.0\nsamples = 4\nvalue = [4, 0]"] ;
78 -> 80 ;
81 [label="gini = 0.0\nsamples = 2\nvalue = [0, 2]"] ;
71 -> 81 ;
82 [label="X[23] <= 28.5\ngini = 0.049\nsamples = 237\nvalue = [231, 6]"] ;
32 -> 82 ;
83 [label="X[25] <= 2023.0\ngini = 0.034\nsamples = 228\nvalue = [224, 4]"] ;
82 -> 83 ;
84 [label="X[17] <= 0.5\ngini = 0.444\nsamples = 3\nvalue = [2, 1]"] ;
83 -> 84 ;
85 [label="gini = 0.0\nsamples = 1\nvalue = [0, 1]"] ;
84 -> 85 ;
86 [label="gini = 0.0\nsamples = 2\nvalue = [2, 0]"] ;
84 -> 86 ;
87 [label="X[26] <= 24482.0\ngini = 0.026\nsamples = 225\nvalue = [222, 3]"] ;
83 -> 87 ;
88 [label="X[27] <= 11.5\ngini = 0.01\nsamples = 207\nvalue = [206, 1]"] ;
87 -> 88 ;
89 [label="X[18] <= 3.5\ngini = 0.083\nsamples = 23\nvalue = [22, 1]"] ;
88 -> 89 ;
90 [label="gini = 0.0\nsamples = 20\nvalue = [20, 0]"] ;
89 -> 90 ;
91 [label="X[30] <= 6.0\ngini = 0.444\nsamples = 3\nvalue = [2, 1]"] ;
89 -> 91 ;
92 [label="gini = 0.0\nsamples = 2\nvalue = [2, 0]"] ;
91 -> 92 ;
93 [label="gini = 0.0\nsamples = 1\nvalue = [0, 1]"] ;
91 -> 93 ;
94 [label="gini = 0.0\nsamples = 184\nvalue = [184, 0]"] ;
88 -> 94 ;
95 [label="X[21] <= 50.0\ngini = 0.198\nsamples = 18\nvalue = [16, 2]"] ;
87 -> 95 ;
96 [label="X[17] <= 2.5\ngini = 0.111\nsamples = 17\nvalue = [16, 1]"] ;
95 -> 96 ;
97 [label="gini = 0.0\nsamples = 16\nvalue = [16, 0]"] ;
96 -> 97 ;
98 [label="gini = 0.0\nsamples = 1\nvalue = [0, 1]"] ;
96 -> 98 ;
99 [label="gini = 0.0\nsamples = 1\nvalue = [0, 1]"] ;
95 -> 99 ;
100 [label="X[6] <= 1.5\ngini = 0.346\nsamples = 9\nvalue = [7, 2]"] ;
82 -> 100 ;
101 [label="gini = 0.0\nsamples = 7\nvalue = [7, 0]"] ;
100 -> 101 ;
102 [label="gini = 0.0\nsamples = 2\nvalue = [0, 2]"] ;
100 -> 102 ;
103 [label="X[23] <= 2.5\ngini = 0.48\nsamples = 5\nvalue = [3, 2]"] ;
27 -> 103 ;
104 [label="gini = 0.0\nsamples = 2\nvalue = [0, 2]"] ;
103 -> 104 ;
105 [label="gini = 0.0\nsamples = 3\nvalue = [3, 0]"] ;
103 -> 105 ;
106 [label="X[20] <= 153.0\ngini = 0.5\nsamples = 6\nvalue = [3, 3]"] ;
26 -> 106 ;
107 [label="gini = 0.0\nsamples = 2\nvalue = [0, 2]"] ;
106 -> 107 ;
108 [label="X[18] <= 1.5\ngini = 0.375\nsamples = 4\nvalue = [3, 1]"] ;
106 -> 108 ;
109 [label="gini = 0.0\nsamples = 1\nvalue = [0, 1]"] ;
108 -> 109 ;
110 [label="gini = 0.0\nsamples = 3\nvalue = [3, 0]"] ;
108 -> 110 ;
111 [label="X[21] <= 33.5\ngini = 0.271\nsamples = 161\nvalue = [135, 26]"] ;
25 -> 111 ;
112 [label="X[22] <= 467.0\ngini = 0.462\nsamples = 47\nvalue = [30, 17]"] ;
111 -> 112 ;
113 [label="X[10] <= 0.5\ngini = 0.346\nsamples = 9\nvalue = [2, 7]"] ;
112 -> 113 ;
114 [label="gini = 0.0\nsamples = 2\nvalue = [2, 0]"] ;
113 -> 114 ;
115 [label="gini = 0.0\nsamples = 7\nvalue = [0, 7]"] ;
113 -> 115 ;
116 [label="X[27] <= 17.5\ngini = 0.388\nsamples = 38\nvalue = [28, 10]"] ;
112 -> 116 ;
117 [label="X[29] <= 4.5\ngini = 0.473\nsamples = 26\nvalue = [16, 10]"] ;
116 -> 117 ;
118 [label="X[11] <= 7.5\ngini = 0.499\nsamples = 19\nvalue = [9, 10]"] ;
117 -> 118 ;
119 [label="X[9] <= 0.5\ngini = 0.397\nsamples = 11\nvalue = [3, 8]"] ;
118 -> 119 ;
120 [label="X[21] <= 27.5\ngini = 0.444\nsamples = 3\nvalue = [2, 1]"] ;
119 -> 120 ;
121 [label="gini = 0.0\nsamples = 2\nvalue = [2, 0]"] ;
120 -> 121 ;
122 [label="gini = 0.0\nsamples = 1\nvalue = [0, 1]"] ;
120 -> 122 ;
123 [label="X[17] <= 2.0\ngini = 0.219\nsamples = 8\nvalue = [1, 7]"] ;
119 -> 123 ;
124 [label="gini = 0.0\nsamples = 6\nvalue = [0, 6]"] ;
123 -> 124 ;
125 [label="X[21] <= 31.0\ngini = 0.5\nsamples = 2\nvalue = [1, 1]"] ;
123 -> 125 ;
126 [label="gini = 0.0\nsamples = 1\nvalue = [1, 0]"] ;
125 -> 126 ;
127 [label="gini = 0.0\nsamples = 1\nvalue = [0, 1]"] ;
125 -> 127 ;
128 [label="X[26] <= 21041.0\ngini = 0.375\nsamples = 8\nvalue = [6, 2]"] ;
118 -> 128 ;
129 [label="gini = 0.0\nsamples = 5\nvalue = [5, 0]"] ;
128 -> 129 ;
130 [label="X[24] <= 72.0\ngini = 0.444\nsamples = 3\nvalue = [1, 2]"] ;
128 -> 130 ;
131 [label="gini = 0.0\nsamples = 2\nvalue = [0, 2]"] ;
130 -> 131 ;
132 [label="gini = 0.0\nsamples = 1\nvalue = [1, 0]"] ;
130 -> 132 ;
133 [label="gini = 0.0\nsamples = 7\nvalue = [7, 0]"] ;
117 -> 133 ;
134 [label="gini = 0.0\nsamples = 12\nvalue = [12, 0]"] ;
116 -> 134 ;
135 [label="X[31] <= 8.5\ngini = 0.145\nsamples = 114\nvalue = [105, 9]"] ;
111 -> 135 ;
136 [label="X[23] <= 8.5\ngini = 0.091\nsamples = 105\nvalue = [100, 5]"] ;
135 -> 136 ;
137 [label="gini = 0.0\nsamples = 62\nvalue = [62, 0]"] ;
136 -> 137 ;
138 [label="X[30] <= 0.5\ngini = 0.206\nsamples = 43\nvalue = [38, 5]"] ;
136 -> 138 ;
139 [label="X[6] <= 1.5\ngini = 0.49\nsamples = 7\nvalue = [4, 3]"] ;
138 -> 139 ;
140 [label="gini = 0.0\nsamples = 3\nvalue = [0, 3]"] ;
139 -> 140 ;
141 [label="gini = 0.0\nsamples = 4\nvalue = [4, 0]"] ;
139 -> 141 ;
142 [label="X[22] <= 1252.5\ngini = 0.105\nsamples = 36\nvalue = [34, 2]"] ;
138 -> 142 ;
143 [label="gini = 0.0\nsamples = 29\nvalue = [29, 0]"] ;
142 -> 143 ;
144 [label="X[23] <= 16.0\ngini = 0.408\nsamples = 7\nvalue = [5, 2]"] ;
142 -> 144 ;
145 [label="gini = 0.0\nsamples = 2\nvalue = [0, 2]"] ;
144 -> 145 ;
146 [label="gini = 0.0\nsamples = 5\nvalue = [5, 0]"] ;
144 -> 146 ;
147 [label="X[27] <= 12.0\ngini = 0.494\nsamples = 9\nvalue = [5, 4]"] ;
135 -> 147 ;
148 [label="gini = 0.0\nsamples = 4\nvalue = [0, 4]"] ;
147 -> 148 ;
149 [label="gini = 0.0\nsamples = 5\nvalue = [5, 0]"] ;
147 -> 149 ;
150 [label="X[25] <= 2929.0\ngini = 0.42\nsamples = 293\nvalue = [205, 88]"] ;
0 -> 150 [labeldistance=2.5, labelangle=-45, headlabel="False"] ;
151 [label="X[22] <= 975.5\ngini = 0.47\nsamples = 74\nvalue = [28, 46]"] ;
150 -> 151 ;
152 [label="X[7] <= 0.5\ngini = 0.343\nsamples = 41\nvalue = [9, 32]"] ;
151 -> 152 ;
153 [label="X[26] <= 21264.0\ngini = 0.295\nsamples = 39\nvalue = [7, 32]"] ;
152 -> 153 ;
154 [label="X[11] <= 0.5\ngini = 0.133\nsamples = 28\nvalue = [2, 26]"] ;
153 -> 154 ;
155 [label="X[3] <= 2.0\ngini = 0.5\nsamples = 2\nvalue = [1, 1]"] ;
154 -> 155 ;
156 [label="gini = 0.0\nsamples = 1\nvalue = [1, 0]"] ;
155 -> 156 ;
157 [label="gini = 0.0\nsamples = 1\nvalue = [0, 1]"] ;
155 -> 157 ;
158 [label="X[25] <= 2863.0\ngini = 0.074\nsamples = 26\nvalue = [1, 25]"] ;
154 -> 158 ;
159 [label="gini = 0.0\nsamples = 24\nvalue = [0, 24]"] ;
158 -> 159 ;
160 [label="X[23] <= 5.0\ngini = 0.5\nsamples = 2\nvalue = [1, 1]"] ;
158 -> 160 ;
161 [label="gini = 0.0\nsamples = 1\nvalue = [1, 0]"] ;
160 -> 161 ;
162 [label="gini = 0.0\nsamples = 1\nvalue = [0, 1]"] ;
160 -> 162 ;
163 [label="X[22] <= 445.0\ngini = 0.496\nsamples = 11\nvalue = [5, 6]"] ;
153 -> 163 ;
164 [label="gini = 0.0\nsamples = 4\nvalue = [0, 4]"] ;
163 -> 164 ;
165 [label="X[25] <= 2207.5\ngini = 0.408\nsamples = 7\nvalue = [5, 2]"] ;
163 -> 165 ;
166 [label="gini = 0.0\nsamples = 2\nvalue = [0, 2]"] ;
165 -> 166 ;
167 [label="gini = 0.0\nsamples = 5\nvalue = [5, 0]"] ;
165 -> 167 ;
168 [label="gini = 0.0\nsamples = 2\nvalue = [2, 0]"] ;
152 -> 168 ;
169 [label="X[26] <= 4623.5\ngini = 0.489\nsamples = 33\nvalue = [19, 14]"] ;
151 -> 169 ;
170 [label="X[2] <= 3.0\ngini = 0.278\nsamples = 6\nvalue = [1, 5]"] ;
169 -> 170 ;
171 [label="gini = 0.0\nsamples = 5\nvalue = [0, 5]"] ;
170 -> 171 ;
172 [label="gini = 0.0\nsamples = 1\nvalue = [1, 0]"] ;
170 -> 172 ;
173 [label="X[21] <= 20.5\ngini = 0.444\nsamples = 27\nvalue = [18, 9]"] ;
169 -> 173 ;
174 [label="gini = 0.0\nsamples = 3\nvalue = [0, 3]"] ;
173 -> 174 ;
175 [label="X[26] <= 17742.0\ngini = 0.375\nsamples = 24\nvalue = [18, 6]"] ;
173 -> 175 ;
176 [label="X[27] <= 18.0\ngini = 0.48\nsamples = 15\nvalue = [9, 6]"] ;
175 -> 176 ;
177 [label="X[20] <= 991.0\ngini = 0.48\nsamples = 10\nvalue = [4, 6]"] ;
176 -> 177 ;
178 [label="X[21] <= 23.0\ngini = 0.245\nsamples = 7\nvalue = [1, 6]"] ;
177 -> 178 ;
179 [label="gini = 0.0\nsamples = 1\nvalue = [1, 0]"] ;
178 -> 179 ;
180 [label="gini = 0.0\nsamples = 6\nvalue = [0, 6]"] ;
178 -> 180 ;
181 [label="gini = 0.0\nsamples = 3\nvalue = [3, 0]"] ;
177 -> 181 ;
182 [label="gini = 0.0\nsamples = 5\nvalue = [5, 0]"] ;
176 -> 182 ;
183 [label="gini = 0.0\nsamples = 9\nvalue = [9, 0]"] ;
175 -> 183 ;
184 [label="X[17] <= 0.5\ngini = 0.31\nsamples = 219\nvalue = [177, 42]"] ;
150 -> 184 ;
185 [label="X[21] <= 35.5\ngini = 0.437\nsamples = 90\nvalue = [61, 29]"] ;
184 -> 185 ;
186 [label="X[23] <= 11.5\ngini = 0.497\nsamples = 41\nvalue = [22, 19]"] ;
185 -> 186 ;
187 [label="X[20] <= 333.5\ngini = 0.436\nsamples = 28\nvalue = [19, 9]"] ;
186 -> 187 ;
188 [label="X[6] <= 0.5\ngini = 0.444\nsamples = 9\nvalue = [3, 6]"] ;
187 -> 188 ;
189 [label="X[2] <= 3.0\ngini = 0.375\nsamples = 4\nvalue = [3, 1]"] ;
188 -> 189 ;
190 [label="gini = 0.0\nsamples = 3\nvalue = [3, 0]"] ;
189 -> 190 ;
191 [label="gini = 0.0\nsamples = 1\nvalue = [0, 1]"] ;
189 -> 191 ;
192 [label="gini = 0.0\nsamples = 5\nvalue = [0, 5]"] ;
188 -> 192 ;
193 [label="X[25] <= 3427.0\ngini = 0.266\nsamples = 19\nvalue = [16, 3]"] ;
187 -> 193 ;
194 [label="gini = 0.0\nsamples = 1\nvalue = [0, 1]"] ;
193 -> 194 ;
195 [label="X[21] <= 23.5\ngini = 0.198\nsamples = 18\nvalue = [16, 2]"] ;
193 -> 195 ;
196 [label="gini = 0.0\nsamples = 1\nvalue = [0, 1]"] ;
195 -> 196 ;
197 [label="X[25] <= 8163.5\ngini = 0.111\nsamples = 17\nvalue = [16, 1]"] ;
195 -> 197 ;
198 [label="gini = 0.0\nsamples = 16\nvalue = [16, 0]"] ;
197 -> 198 ;
199 [label="gini = 0.0\nsamples = 1\nvalue = [0, 1]"] ;
197 -> 199 ;
200 [label="X[28] <= 5.0\ngini = 0.355\nsamples = 13\nvalue = [3, 10]"] ;
186 -> 200 ;
201 [label="gini = 0.0\nsamples = 2\nvalue = [2, 0]"] ;
200 -> 201 ;
202 [label="X[1] <= 0.5\ngini = 0.165\nsamples = 11\nvalue = [1, 10]"] ;
200 -> 202 ;
203 [label="gini = 0.0\nsamples = 1\nvalue = [1, 0]"] ;
202 -> 203 ;
204 [label="gini = 0.0\nsamples = 10\nvalue = [0, 10]"] ;
202 -> 204 ;
205 [label="X[32] <= 0.5\ngini = 0.325\nsamples = 49\nvalue = [39, 10]"] ;
185 -> 205 ;
206 [label="X[19] <= 1.5\ngini = 0.5\nsamples = 10\nvalue = [5, 5]"] ;
205 -> 206 ;
207 [label="gini = 0.0\nsamples = 3\nvalue = [3, 0]"] ;
206 -> 207 ;
208 [label="X[15] <= 0.5\ngini = 0.408\nsamples = 7\nvalue = [2, 5]"] ;
206 -> 208 ;
209 [label="X[6] <= 1.0\ngini = 0.444\nsamples = 3\nvalue = [2, 1]"] ;
208 -> 209 ;
210 [label="gini = 0.0\nsamples = 2\nvalue = [2, 0]"] ;
209 -> 210 ;
211 [label="gini = 0.0\nsamples = 1\nvalue = [0, 1]"] ;
209 -> 211 ;
212 [label="gini = 0.0\nsamples = 4\nvalue = [0, 4]"] ;
208 -> 212 ;
213 [label="X[25] <= 3217.0\ngini = 0.224\nsamples = 39\nvalue = [34, 5]"] ;
205 -> 213 ;
214 [label="X[11] <= 4.0\ngini = 0.444\nsamples = 3\nvalue = [1, 2]"] ;
213 -> 214 ;
215 [label="gini = 0.0\nsamples = 2\nvalue = [0, 2]"] ;
214 -> 215 ;
216 [label="gini = 0.0\nsamples = 1\nvalue = [1, 0]"] ;
214 -> 216 ;
217 [label="X[30] <= 14.5\ngini = 0.153\nsamples = 36\nvalue = [33, 3]"] ;
213 -> 217 ;
218 [label="X[18] <= 0.5\ngini = 0.108\nsamples = 35\nvalue = [33, 2]"] ;
217 -> 218 ;
219 [label="gini = 0.0\nsamples = 1\nvalue = [0, 1]"] ;
218 -> 219 ;
220 [label="X[20] <= 1354.0\ngini = 0.057\nsamples = 34\nvalue = [33, 1]"] ;
218 -> 220 ;
221 [label="gini = 0.0\nsamples = 32\nvalue = [32, 0]"] ;
220 -> 221 ;
222 [label="X[5] <= 0.5\ngini = 0.5\nsamples = 2\nvalue = [1, 1]"] ;
220 -> 222 ;
223 [label="gini = 0.0\nsamples = 1\nvalue = [1, 0]"] ;
222 -> 223 ;
224 [label="gini = 0.0\nsamples = 1\nvalue = [0, 1]"] ;
222 -> 224 ;
225 [label="gini = 0.0\nsamples = 1\nvalue = [0, 1]"] ;
217 -> 225 ;
226 [label="X[3] <= 0.5\ngini = 0.181\nsamples = 129\nvalue = [116, 13]"] ;
184 -> 226 ;
227 [label="gini = 0.0\nsamples = 1\nvalue = [0, 1]"] ;
226 -> 227 ;
228 [label="X[20] <= 1459.5\ngini = 0.17\nsamples = 128\nvalue = [116, 12]"] ;
226 -> 228 ;
229 [label="X[24] <= 97.5\ngini = 0.158\nsamples = 127\nvalue = [116, 11]"] ;
228 -> 229 ;
230 [label="X[25] <= 19853.0\ngini = 0.146\nsamples = 126\nvalue = [116, 10]"] ;
229 -> 230 ;
231 [label="X[18] <= 5.5\ngini = 0.134\nsamples = 125\nvalue = [116, 9]"] ;
230 -> 231 ;
232 [label="X[21] <= 25.5\ngini = 0.11\nsamples = 120\nvalue = [113, 7]"] ;
231 -> 232 ;
233 [label="X[24] <= 38.0\ngini = 0.444\nsamples = 6\nvalue = [4, 2]"] ;
232 -> 233 ;
234 [label="gini = 0.0\nsamples = 2\nvalue = [0, 2]"] ;
233 -> 234 ;
235 [label="gini = 0.0\nsamples = 4\nvalue = [4, 0]"] ;
233 -> 235 ;
236 [label="X[23] <= 28.5\ngini = 0.084\nsamples = 114\nvalue = [109, 5]"] ;
232 -> 236 ;
237 [label="X[24] <= 95.5\ngini = 0.069\nsamples = 112\nvalue = [108, 4]"] ;
236 -> 237 ;
238 [label="X[3] <= 4.5\ngini = 0.053\nsamples = 110\nvalue = [107, 3]"] ;
237 -> 238 ;
239 [label="X[11] <= 5.5\ngini = 0.02\nsamples = 99\nvalue = [98, 1]"] ;
238 -> 239 ;
240 [label="gini = 0.0\nsamples = 86\nvalue = [86, 0]"] ;
239 -> 240 ;
241 [label="X[8] <= 6.5\ngini = 0.142\nsamples = 13\nvalue = [12, 1]"] ;
239 -> 241 ;
242 [label="gini = 0.0\nsamples = 11\nvalue = [11, 0]"] ;
241 -> 242 ;
243 [label="X[21] <= 30.5\ngini = 0.5\nsamples = 2\nvalue = [1, 1]"] ;
241 -> 243 ;
244 [label="gini = 0.0\nsamples = 1\nvalue = [1, 0]"] ;
243 -> 244 ;
245 [label="gini = 0.0\nsamples = 1\nvalue = [0, 1]"] ;
243 -> 245 ;
246 [label="X[26] <= 16628.5\ngini = 0.298\nsamples = 11\nvalue = [9, 2]"] ;
238 -> 246 ;
247 [label="gini = 0.0\nsamples = 8\nvalue = [8, 0]"] ;
246 -> 247 ;
248 [label="X[29] <= 8.5\ngini = 0.444\nsamples = 3\nvalue = [1, 2]"] ;
246 -> 248 ;
249 [label="gini = 0.0\nsamples = 2\nvalue = [0, 2]"] ;
248 -> 249 ;
250 [label="gini = 0.0\nsamples = 1\nvalue = [1, 0]"] ;
248 -> 250 ;
251 [label="X[3] <= 2.5\ngini = 0.5\nsamples = 2\nvalue = [1, 1]"] ;
237 -> 251 ;
252 [label="gini = 0.0\nsamples = 1\nvalue = [0, 1]"] ;
251 -> 252 ;
253 [label="gini = 0.0\nsamples = 1\nvalue = [1, 0]"] ;
251 -> 253 ;
254 [label="X[17] <= 1.5\ngini = 0.5\nsamples = 2\nvalue = [1, 1]"] ;
236 -> 254 ;
255 [label="gini = 0.0\nsamples = 1\nvalue = [0, 1]"] ;
254 -> 255 ;
256 [label="gini = 0.0\nsamples = 1\nvalue = [1, 0]"] ;
254 -> 256 ;
257 [label="X[5] <= 0.5\ngini = 0.48\nsamples = 5\nvalue = [3, 2]"] ;
231 -> 257 ;
258 [label="gini = 0.0\nsamples = 3\nvalue = [3, 0]"] ;
257 -> 258 ;
259 [label="gini = 0.0\nsamples = 2\nvalue = [0, 2]"] ;
257 -> 259 ;
260 [label="gini = 0.0\nsamples = 1\nvalue = [0, 1]"] ;
230 -> 260 ;
261 [label="gini = 0.0\nsamples = 1\nvalue = [0, 1]"] ;
229 -> 261 ;
262 [label="gini = 0.0\nsamples = 1\nvalue = [0, 1]"] ;
228 -> 262 ;
}
